<?xml version="1.0"?>
<opencv_storage>
<my_svm type_id="opencv-ml-svm">
  <svm_type>C_SVC</svm_type>
  <kernel><type>LINEAR</type></kernel>
  <C>1.0000000000000000e-002</C>
  <term_criteria><epsilon>1.1920928955078125e-007</epsilon>
    <iterations>1000</iterations></term_criteria>
  <var_all>270</var_all>
  <var_count>270</var_count>
  <class_count>2</class_count>
  <class_labels type_id="opencv-matrix">
    <rows>1</rows>
    <cols>2</cols>
    <dt>i</dt>
    <data>
      -1 1</data></class_labels>
  <sv_total>1</sv_total>
  <support_vectors>
    <_>
      -5.48220724e-002 -9.48372558e-002 -5.42685203e-002
      -3.51725481e-002 2.04227474e-002 3.74907292e-002 3.73136625e-002
      4.55172248e-002 -7.95290992e-003 -3.61450724e-002 -2.82990392e-002
      2.27944623e-003 3.02173309e-002 6.04985468e-002 2.95323599e-002
      3.15146185e-002 4.48185280e-002 -3.66642885e-002 -4.60463949e-002
      8.97258613e-003 2.49917991e-002 2.85035688e-002 3.78034636e-002
      -3.23330145e-003 -1.58472117e-002 -2.19907183e-002
      -6.65893629e-002 -2.21827235e-002 5.49540017e-003 2.42770296e-002
      3.81408595e-002 3.92899700e-002 1.31817782e-004 -1.00960797e-002
      -2.91904788e-002 -4.14051004e-002 -3.44577953e-002
      -4.36688913e-003 2.71876086e-003 1.22195194e-002 2.30112262e-002
      1.44829787e-003 9.16453369e-004 -1.67412516e-002 -4.92581353e-002
      -4.45849672e-002 -7.16975890e-003 -7.09296577e-003 8.22733808e-003
      4.24150564e-002 2.81056892e-002 7.42216781e-003 -1.32781093e-003
      -3.94433253e-002 -5.00183031e-002 -3.09752729e-002
      -2.38102134e-002 9.95280966e-003 3.34017090e-002 1.94024891e-002
      3.57061485e-003 -3.71558504e-004 -3.57762761e-002 -3.39812599e-002
      -4.27752547e-002 -9.06340487e-004 2.01296415e-002 4.53841165e-002
      3.23438197e-002 2.51513477e-002 -2.31441110e-002 -4.16202471e-002
      -2.85726674e-002 6.60034595e-003 3.07195410e-002 2.71841381e-002
      3.70573699e-002 1.01411273e-003 -2.37166416e-002 -5.38034067e-002
      -3.08221206e-002 1.35976421e-002 6.54133176e-003 2.77610272e-002
      1.63090937e-002 -5.51615562e-003 -6.95389658e-002 -6.54238313e-002
      -6.25212491e-002 -1.01519637e-002 5.29725216e-002 1.96032431e-002
      5.44531830e-003 -6.75543919e-002 -7.22508952e-002 -6.64487779e-002
      -1.27596513e-003 2.73266453e-002 5.31833842e-002 1.31609784e-002
      5.22895111e-003 -3.94228660e-003 -2.44554486e-002 -2.42716577e-002
      -2.12886110e-002 8.16116948e-003 1.34809350e-003 2.43560616e-002
      2.36523226e-002 1.01444181e-002 -2.67752241e-002 -4.51726392e-002
      -4.78572063e-002 -4.55009602e-002 -1.62177056e-003
      -5.85375680e-003 2.18126252e-002 5.16348593e-002 1.96474288e-002
      -2.97670718e-003 -5.16381487e-002 -2.56604347e-002
      -6.33885562e-002 5.44122187e-003 1.87007040e-002 4.87646013e-002
      4.14189994e-002 6.74803182e-003 -9.46334284e-003 -4.67299223e-002
      -5.53971827e-002 -4.94599082e-002 1.85604468e-002 1.99806821e-002
      4.71048132e-002 5.23717329e-002 1.43340342e-002 -1.83688123e-002
      -6.11314513e-002 -3.20332199e-002 -5.28303236e-002
      -6.52408227e-003 1.94823816e-002 5.38298376e-002 4.22810353e-002
      1.89255364e-002 -3.36505771e-002 -6.60770535e-002 -4.52607907e-002
      -5.63317388e-002 -1.93391554e-002 4.40065982e-003 4.34216410e-002
      2.08734628e-002 -1.74905676e-002 -2.48955451e-002 -3.78475413e-002
      -3.44458898e-003 -2.57323105e-002 -2.77922284e-002
      -1.70042347e-002 2.23998595e-002 3.10776699e-002 -7.25686923e-003
      -2.57300176e-002 -5.28356358e-002 -3.23573276e-002
      -3.67129408e-002 -2.39768787e-003 -2.20797234e-003 2.46160589e-002
      7.06771240e-002 4.53586578e-002 7.12299580e-003 -5.42486869e-002
      -5.04301563e-002 -7.38805607e-002 3.03820278e-002 3.23252082e-002
      5.68409301e-002 -1.63238812e-002 2.04154551e-002 2.40700301e-002
      2.52160467e-002 6.55239308e-003 -3.82726304e-002 -5.29167056e-002
      -6.32164031e-002 -4.48330715e-002 -3.18327919e-002 1.90627333e-002
      2.28244327e-002 4.06898111e-002 5.23793288e-002 2.64829937e-002
      -4.10156697e-003 -1.91907231e-002 -3.67915221e-002
      -5.66967838e-002 -1.18895248e-002 -8.96691158e-003 1.79587193e-002
      3.71522084e-002 1.83609445e-002 2.39078477e-002 7.75473053e-003
      -4.43584360e-002 -3.51643302e-002 1.48271851e-003 2.91027455e-003
      1.33080743e-002 1.63594577e-002 2.06141211e-002 2.76973732e-002
      1.70888267e-002 -3.09461821e-002 -6.04156479e-002 1.14887981e-002
      2.08901465e-002 1.72142703e-002 4.23799120e-002 2.42512915e-002
      2.09944323e-002 -4.50781174e-003 -6.96754679e-002 -4.36029732e-002
      3.37696522e-002 4.35435809e-002 4.00332063e-002 5.68046309e-002
      3.07248626e-002 1.73072163e-002 -1.53276520e-002 -5.16526997e-002
      -4.57859337e-002 2.89126746e-002 3.67892608e-002 2.59727538e-002
      3.68901268e-002 1.80593915e-002 -1.07108778e-003 -1.62002817e-002
      -5.70615605e-002 -4.45161983e-002 2.88153049e-002 4.63622324e-002
      3.69039476e-002 4.69443165e-002 2.80318651e-002 2.58335043e-002
      -1.98982488e-002 -4.09934558e-002 -4.71345484e-002
      -4.18054052e-002 -3.71483061e-003 2.70816721e-002 4.55880202e-002
      7.32029090e-003 3.41966301e-002 2.21603736e-002 -4.57672775e-002
      -1.76225137e-002 -7.67638683e-002 -6.65846765e-002
      -3.23312357e-002 -5.73896279e-004 3.39670992e-003 2.27657408e-002
      3.56424116e-002 1.77386869e-002</_></support_vectors>
  <decision_functions>
    <_>
      <sv_count>1</sv_count>
      <rho>-1.3999719645159694e+000</rho>
      <alpha>
        1.</alpha>
      <index>
        0</index></_></decision_functions></my_svm>
</opencv_storage>
