<?xml version="1.0"?>
<opencv_storage>
<my_svm type_id="opencv-ml-svm">
  <svm_type>C_SVC</svm_type>
  <kernel><type>LINEAR</type></kernel>
  <C>1.0000000000000000e-002</C>
  <term_criteria><epsilon>1.1920928955078125e-007</epsilon>
    <iterations>1000</iterations></term_criteria>
  <var_all>270</var_all>
  <var_count>270</var_count>
  <class_count>2</class_count>
  <class_labels type_id="opencv-matrix">
    <rows>1</rows>
    <cols>2</cols>
    <dt>i</dt>
    <data>
      -1 1</data></class_labels>
  <sv_total>1</sv_total>
  <support_vectors>
    <_>
      1.03004035e-002 -2.77203079e-002 -4.11610864e-002 -3.19697745e-002
      4.21493532e-005 1.74315069e-002 1.84127502e-002 1.25484727e-002
      1.99960507e-002 3.23267654e-002 -1.34606264e-003 -1.99949443e-002
      -2.23461520e-002 -9.93745960e-003 -1.82805117e-002
      -1.51089486e-002 -2.68344022e-003 2.81514842e-002 -4.11967859e-002
      -1.95197687e-002 9.36452858e-003 1.93499681e-002 2.61686128e-002
      2.23969277e-002 7.42361462e-003 -2.14436669e-002 -3.94988693e-002
      -3.97105096e-003 -1.13318581e-002 5.56975370e-003 4.30173986e-003
      1.44412955e-002 1.86952495e-003 -4.23464505e-003 -5.67483902e-003
      -1.05791716e-002 2.15317775e-002 1.09049398e-002 1.56063978e-002
      1.74749587e-002 -8.53037834e-003 -3.54436971e-002 -3.52683254e-002
      -2.90253442e-002 1.66154709e-002 3.78411487e-002 3.95738520e-003
      -1.60896573e-002 -1.39642144e-002 -1.11090792e-002
      -3.59546132e-002 -3.31769921e-002 -4.78546694e-003 3.33654247e-002
      1.56753734e-002 1.74542554e-002 8.04486498e-003 -9.80639923e-003
      -1.24614043e-002 -1.76600944e-002 -3.56647186e-002
      -2.03186851e-002 8.27350654e-003 1.89303216e-002 1.45447413e-002
      1.96652040e-002 3.28184268e-003 -5.36083663e-003 -2.07773466e-002
      -8.01685732e-003 -1.49934180e-002 6.21442124e-003 -1.80818569e-002
      -1.10256709e-002 9.91725922e-003 1.05640711e-002 2.11380143e-002
      5.32751530e-003 7.70048145e-003 -6.91395812e-003 -3.07408720e-002
      -2.91703772e-002 -1.46120200e-002 1.40696997e-002 2.11327542e-002
      2.45341845e-002 1.83408875e-002 2.52421480e-002 1.79966576e-002
      -3.23677026e-002 1.61616169e-002 -3.25843245e-002 -4.47476245e-002
      -2.29328927e-002 -9.78435203e-003 -2.72449050e-002 2.43271026e-003
      7.15272315e-003 1.86981391e-002 8.07514321e-003 -1.44972038e-002
      -1.46873081e-002 -1.41866198e-002 8.18159524e-003 -1.11213494e-002
      1.12482244e-002 1.25664016e-002 1.88445970e-002 2.02473029e-002
      1.38368430e-002 1.70263164e-002 -5.88687137e-003 -3.75547744e-002
      -3.47057544e-002 1.43449763e-002 1.37576992e-002 1.47876795e-002
      2.33640485e-002 1.41931744e-002 7.46297045e-003 -2.89108381e-002
      -3.40629704e-002 -2.29627993e-002 2.72763968e-002 2.88617443e-002
      2.94541102e-002 -2.55753715e-002 -1.59654971e-002 -4.76768473e-003
      9.64335073e-003 1.40702249e-002 1.63877122e-002 2.70036273e-002
      1.40585331e-002 -2.58240160e-002 -2.81761158e-002 2.09701387e-003
      1.12823024e-002 2.57331990e-002 2.29010954e-002 1.66955218e-002
      1.12221809e-002 -1.40480297e-002 -3.67068425e-002 1.26555618e-002
      1.07146529e-002 2.39542546e-003 -2.42255535e-002 -3.17752287e-002
      -1.94492415e-002 1.08319866e-002 1.20878508e-002 9.40759946e-003
      1.18798967e-002 1.32594267e-002 8.08051694e-003 -1.99462902e-002
      -2.11096909e-002 -3.00915930e-002 -5.67427720e-004 5.30984113e-003
      2.94809695e-003 1.86067391e-002 -5.57929743e-003 -5.36800176e-003
      -2.09891275e-002 -2.67022438e-002 -2.01326553e-002 1.69262029e-002
      1.91351846e-002 2.84490418e-002 2.74430234e-002 1.18675537e-003
      -4.22182400e-003 -1.15762725e-002 -1.75038353e-002
      -3.88447419e-002 1.70640666e-002 1.52139068e-002 3.52101400e-002
      -1.88026838e-002 -1.77806697e-003 6.79851836e-003 1.81219485e-002
      2.21431293e-002 8.34092125e-003 -3.74396984e-003 -3.10943890e-002
      -2.20046323e-002 -2.10050046e-002 -1.16565377e-002
      -7.76346680e-003 8.18904839e-004 3.63001116e-002 1.36743225e-002
      2.99112150e-003 -1.56670325e-002 -1.11882659e-002 1.78514291e-002
      4.54415940e-003 4.35644732e-004 1.06151784e-002 -1.10016288e-002
      -2.04680786e-002 -6.89947139e-003 -2.25806050e-003 1.49625624e-002
      1.90099888e-002 8.67110956e-003 -1.37295006e-002 -1.82184819e-002
      -1.53520592e-002 -3.22900154e-002 -5.52361133e-003
      -6.51563890e-003 1.75938923e-002 2.29235087e-002 1.59713719e-002
      1.15943812e-002 -5.04618837e-003 -1.57793984e-002 -3.91720533e-002
      -9.83066671e-003 -7.21877394e-003 1.38293207e-002 1.01214349e-002
      2.19867472e-002 2.53665801e-002 2.03737598e-002 8.46003555e-003
      -2.81726066e-002 -3.31500694e-002 -4.70805354e-002
      -3.09130624e-002 -6.69372315e-003 -1.11025302e-002
      -8.26499891e-003 -5.09892125e-003 1.97054371e-002 4.65013413e-003
      1.83111837e-003 -1.02272723e-002 -2.19294894e-003 -4.48939018e-002
      -1.14817228e-002 1.04491711e-002 2.31656488e-002 3.64078619e-002
      9.76165198e-003 4.50802129e-003 -1.29775265e-002 -3.60255539e-002
      1.52298054e-002 -5.46121038e-003 -1.07862614e-002 -3.03766634e-002
      -1.67349689e-002 5.08781476e-003 1.02959946e-002 1.28308393e-003
      1.85325872e-002 2.85152602e-003 -3.60705629e-002 -3.73234488e-002
      -4.07489948e-002 3.40467435e-003 1.99265294e-002 2.66469754e-002
      1.25316624e-002 1.94495451e-002</_></support_vectors>
  <decision_functions>
    <_>
      <sv_count>1</sv_count>
      <rho>-1.2172169437851428e+000</rho>
      <alpha>
        1.</alpha>
      <index>
        0</index></_></decision_functions></my_svm>
</opencv_storage>
